{
  "features_extractor.mlp.0.weight": {
    "min": -1.173715353012085,
    "max": 0.6933537125587463,
    "mean": -0.005512353032827377,
    "std": 0.11724716424942017,
    "median": 0.002410364104434848,
    "sparsity": 0.0,
    "shape": [
      64,
      106
    ],
    "num_params": 6784,
    "abs_mean": 0.07976042479276657,
    "abs_max": 1.173715353012085,
    "histogram": {
      "counts": [
        1,
        6,
        12,
        38,
        169,
        1546,
        4583,
        394,
        31,
        4
      ],
      "bin_edges": [
        -1.173715353012085,
        -0.9870084524154663,
        -0.8003015518188477,
        -0.613594651222229,
        -0.42688775062561035,
        -0.2401808500289917,
        -0.05347394943237305,
        0.1332329511642456,
        0.31993985176086426,
        0.5066467523574829,
        0.6933537125587463
      ]
    }
  },
  "features_extractor.mlp.0.bias": {
    "min": -0.1431192010641098,
    "max": 0.21546714007854462,
    "mean": 0.005948777310550213,
    "std": 0.07069962471723557,
    "median": 0.005666263401508331,
    "sparsity": 0.0,
    "shape": [
      64
    ],
    "num_params": 64,
    "abs_mean": 0.05397897586226463,
    "abs_max": 0.21546714007854462,
    "histogram": {
      "counts": [
        3,
        6,
        8,
        13,
        13,
        14,
        4,
        0,
        1,
        2
      ],
      "bin_edges": [
        -0.1431192010641098,
        -0.1072605699300766,
        -0.0714019313454628,
        -0.035543292760849,
        0.0003153383731842041,
        0.03617396950721741,
        0.0720326155424118,
        0.10789124667644501,
        0.1437498778104782,
        0.1796085089445114,
        0.21546714007854462
      ]
    }
  },
  "q_net.0.weight": {
    "min": -0.9816539883613586,
    "max": 0.5428876280784607,
    "mean": -0.012811344116926193,
    "std": 0.14449149370193481,
    "median": -0.0033828492742031813,
    "sparsity": 0.0,
    "shape": [
      64,
      64
    ],
    "num_params": 4096,
    "abs_mean": 0.10755810141563416,
    "abs_max": 0.9816539883613586,
    "histogram": {
      "counts": [
        3,
        4,
        18,
        62,
        198,
        975,
        1860,
        876,
        90,
        10
      ],
      "bin_edges": [
        -0.9816539883613586,
        -0.8291997909545898,
        -0.6767456531524658,
        -0.5242915153503418,
        -0.371837317943573,
        -0.21938318014144897,
        -0.06692898273468018,
        0.08552521467208862,
        0.23797935247421265,
        0.39043349027633667,
        0.5428876280784607
      ]
    }
  },
  "q_net.0.bias": {
    "min": -0.1402578353881836,
    "max": 0.16007478535175323,
    "mean": 0.02013862133026123,
    "std": 0.077675461769104,
    "median": 0.023288097232580185,
    "sparsity": 0.0,
    "shape": [
      64
    ],
    "num_params": 64,
    "abs_mean": 0.06794589757919312,
    "abs_max": 0.16007478535175323,
    "histogram": {
      "counts": [
        3,
        4,
        8,
        5,
        9,
        7,
        9,
        6,
        9,
        4
      ],
      "bin_edges": [
        -0.1402578353881836,
        -0.11022457480430603,
        -0.08019131422042847,
        -0.0501580536365509,
        -0.02012479305267334,
        0.009908467531204224,
        0.03994172811508179,
        0.06997498869895935,
        0.10000824928283691,
        0.13004150986671448,
        0.16007478535175323
      ]
    }
  },
  "q_net.2.weight": {
    "min": -1.6993117332458496,
    "max": 0.6442360281944275,
    "mean": -0.00987119972705841,
    "std": 0.14349816739559174,
    "median": 0.0009648553095757961,
    "sparsity": 0.0,
    "shape": [
      64,
      64
    ],
    "num_params": 4096,
    "abs_mean": 0.10232111066579819,
    "abs_max": 1.6993117332458496,
    "histogram": {
      "counts": [
        2,
        0,
        4,
        2,
        18,
        113,
        1130,
        2603,
        217,
        7
      ],
      "bin_edges": [
        -1.6993117332458496,
        -1.4649569988250732,
        -1.2306021451950073,
        -0.996247410774231,
        -0.7618926167488098,
        -0.5275378227233887,
        -0.2931830883026123,
        -0.05882823467254639,
        0.17552649974822998,
        0.4098813533782959,
        0.6442360281944275
      ]
    }
  },
  "q_net.2.bias": {
    "min": -0.15319567918777466,
    "max": 0.21080458164215088,
    "mean": 0.04090866446495056,
    "std": 0.08993946015834808,
    "median": 0.03310002386569977,
    "sparsity": 0.0,
    "shape": [
      64
    ],
    "num_params": 64,
    "abs_mean": 0.07934646308422089,
    "abs_max": 0.21080458164215088,
    "histogram": {
      "counts": [
        5,
        2,
        3,
        7,
        14,
        6,
        11,
        6,
        5,
        5
      ],
      "bin_edges": [
        -0.15319567918777466,
        -0.11679565161466599,
        -0.08039562404155731,
        -0.04399559646844864,
        -0.007595568895339966,
        0.02880445122718811,
        0.06520448625087738,
        0.10160452127456665,
        0.13800454139709473,
        0.1744045615196228,
        0.21080458164215088
      ]
    }
  },
  "q_net.4.weight": {
    "min": -0.5413492918014526,
    "max": 0.3666931986808777,
    "mean": 0.014666554518043995,
    "std": 0.1348804235458374,
    "median": 0.03484177589416504,
    "sparsity": 0.0,
    "shape": [
      5,
      64
    ],
    "num_params": 320,
    "abs_mean": 0.10737165063619614,
    "abs_max": 0.5413492918014526,
    "histogram": {
      "counts": [
        2,
        3,
        4,
        20,
        37,
        69,
        88,
        74,
        20,
        3
      ],
      "bin_edges": [
        -0.5413492918014526,
        -0.4505450427532196,
        -0.3597407937049866,
        -0.26893654465675354,
        -0.1781322956085205,
        -0.08732804656028748,
        0.0034762024879455566,
        0.09428048133850098,
        0.18508470058441162,
        0.27588891983032227,
        0.3666931986808777
      ]
    }
  },
  "q_net.4.bias": {
    "min": -0.011396987363696098,
    "max": 0.19049561023712158,
    "mean": 0.08305253088474274,
    "std": 0.0692228376865387,
    "median": 0.09987545013427734,
    "sparsity": 0.0,
    "shape": [
      5
    ],
    "num_params": 5,
    "abs_mean": 0.08761132508516312,
    "abs_max": 0.19049561023712158,
    "histogram": {
      "counts": [
        1,
        0,
        1,
        0,
        0,
        2,
        0,
        0,
        0,
        1
      ],
      "bin_edges": [
        -0.011396987363696098,
        0.008792271837592125,
        0.028981531038880348,
        0.04917079210281372,
        0.06936004757881165,
        0.08954930305480957,
        0.10973856598138809,
        0.1299278289079666,
        0.15011708438396454,
        0.17030633985996246,
        0.19049561023712158
      ]
    }
  }
}